icon_model/conv2d/kernel:0
(5, 5, 1, 6)
[[[[-2.48072878e-01  1.83336303e-01  8.98151323e-02 -2.27040146e-02
    -2.41726354e-01 -4.29102600e-01]]

  [[-3.04205984e-01  2.52518147e-01 -5.18194847e-02  9.59720165e-02
     1.52732404e-02 -1.52851120e-01]]

  [[ 6.62296191e-02 -1.55890048e-01 -1.53759524e-01  2.91646481e-01
     2.46517360e-01  3.87810856e-01]]

  [[ 2.25804538e-01  5.03766760e-02  1.61150545e-01 -1.55983925e-01
    -1.29731938e-01  1.31759375e-01]]

  [[ 9.35536176e-02  9.72470082e-03  2.58857697e-01 -1.83300108e-01
     2.91004963e-02  1.11666098e-01]]]


 [[[ 2.52826124e-01 -1.91186309e-01  7.00832382e-02  2.05115780e-01
     9.73042697e-02  8.80648419e-02]]

  [[-3.92367095e-02  2.43887171e-01  3.02250236e-01  1.10417813e-01
     3.53571236e-01  1.44725487e-01]]

  [[-1.63543448e-01  2.05466911e-01  1.74347937e-01  8.96660089e-02
     1.06478207e-01  2.36471117e-01]]

  [[-1.81145757e-01  3.30305725e-01 -1.56743988e-01 -2.00002298e-01
    -4.26095009e-01 -1.39872670e-01]]

  [[ 2.19764397e-01 -3.32312405e-01  7.71921575e-02  1.62641674e-01
    -1.99987590e-02 -4.88034412e-02]]]


 [[[ 2.82836612e-02 -7.78556317e-02 -2.89450675e-01 -6.64046928e-02
    -9.56699997e-02  3.17573100e-01]]

  [[ 2.14160264e-01 -2.56610960e-02 -2.95907054e-02 -9.34633911e-02
    -1.44878730e-01  2.37705708e-01]]

  [[-1.98252067e-01  3.34974006e-02 -2.17845887e-01 -5.68336211e-02
    -2.18712375e-01 -2.95522511e-01]]

  [[-1.14269570e-01 -3.31155837e-01 -4.08101201e-01  3.24002028e-01
     2.09134117e-01 -3.17153707e-02]]

  [[-4.04580124e-03 -9.41284746e-02 -1.47934347e-01 -4.91842330e-02
     2.99988897e-03  1.29102776e-02]]]


 [[[-3.69095877e-02  1.68030813e-01  1.60257444e-01  1.30543917e-01
     1.05575554e-01 -3.46273510e-03]]

  [[ 3.44387084e-01 -1.00619771e-01  1.49728572e-02 -1.20315909e-01
     2.18221918e-01 -4.45230724e-03]]

  [[-2.89570510e-01 -1.98407415e-02  3.12598854e-01 -2.51856476e-01
    -3.20002317e-01 -1.62308291e-01]]

  [[-9.94876623e-02 -2.75030762e-01  4.75774080e-01  2.99905270e-01
     1.43520504e-01  1.57870010e-01]]

  [[ 1.22136451e-01  8.05153325e-02 -6.78159520e-02 -3.73333413e-03
     1.02544136e-01  1.00473806e-01]]]


 [[[-1.71261474e-01 -1.60921335e-01  4.38106683e-04 -9.82090160e-02
     8.09597448e-02  1.01578854e-01]]

  [[ 2.58190304e-01 -1.91276640e-01  6.96743652e-02  1.94988012e-01
    -4.08737957e-01 -2.19969407e-01]]

  [[ 9.12102684e-02  9.33289826e-02  5.62500134e-02 -4.41580385e-01
     1.96397752e-01  1.80797309e-01]]

  [[-2.23985717e-01  1.99925616e-01  1.82894617e-02  9.95141864e-02
     1.72867939e-01  1.13791630e-01]]

  [[-9.52427909e-02  2.24248931e-01 -1.08870640e-01  3.32266748e-01
    -9.80358943e-02 -1.36975423e-01]]]]
icon_model/conv2d/bias:0
(6,)
[-0.12814033 -0.02413956 -0.21424776 -0.08131021 -0.12555729  0.05333728]
icon_model/batch_normalization/gamma:0
(6,)
[1.2169392 1.0619962 1.337073  1.3637493 1.2961677 1.0412974]
icon_model/batch_normalization/beta:0
(6,)
[-1.1753353  -0.81476694 -0.7807439  -0.8220624  -1.0626287  -0.5688487 ]
icon_model/dense/kernel:0
(1176, 512)
[[-0.09468243 -0.01793376 -0.11106891 ... -0.06234533 -0.17426968
  -0.05556091]
 [-0.1950195   0.00136715  0.01203576 ... -0.18801641 -0.13705117
  -0.09904846]
 [-0.01279354 -0.02390504 -0.01918808 ... -0.05226014 -0.05086319
  -0.00912818]
 ...
 [-0.0863372  -0.00922131 -0.1081278  ...  0.10504099 -0.06325696
  -0.06273696]
 [-0.0643367  -0.05615683 -0.15613979 ...  0.03358441 -0.0154548
  -0.0976273 ]
 [ 0.02156978  0.05554477 -0.17383476 ... -0.02354678  0.12649375
  -0.04800609]]
icon_model/dense/bias:0
(512,)
[-2.02304721e-02 -8.14358294e-02 -2.79506147e-01  1.67457107e-02
 -1.16968984e-02  1.60554294e-02  2.74606705e-01 -6.20987937e-02
 -2.48299107e-01 -2.28467450e-01  1.46636441e-01  1.52553320e-01
 -6.96564466e-02 -1.28365770e-01 -5.08776046e-02 -4.60131168e-02
 -1.55719826e-02 -5.83052188e-02 -6.16296232e-02  2.67176390e-01
 -8.31328705e-03  1.09716378e-01 -1.59970671e-01 -2.07997337e-01
 -6.04591630e-02  2.16875851e-01 -4.09985512e-01  2.01097146e-01
 -6.58258423e-03 -2.03601122e-01  1.43327013e-01 -4.09498662e-02
 -2.12413087e-01 -1.96287394e-01 -4.12253290e-02 -4.67052720e-02
  1.43212276e-02 -8.49127546e-02 -1.74095675e-01 -8.19806606e-02
 -2.96153706e-02 -1.77878626e-02  1.56946480e-01 -6.91462830e-02
 -4.26374860e-02 -1.53586213e-02 -6.86676204e-02  1.33142173e-01
 -2.27432683e-01  2.98272163e-01 -6.15504384e-02 -9.60095748e-02
 -2.82821357e-01 -5.14394306e-02 -2.07649358e-02 -3.03002223e-02
 -1.31639913e-01  2.84310877e-01 -1.45221785e-01  3.07245441e-02
 -4.41657901e-02 -5.96124306e-02  2.78655589e-01  8.82295445e-02
  3.54658812e-02 -1.70721263e-01  1.17278220e-02 -4.40611809e-01
 -7.41634443e-02 -1.12528622e-01 -4.33098376e-02 -4.86589372e-02
 -4.28856537e-02 -5.40029742e-02 -4.80218828e-02  9.91700068e-02
  2.25338280e-01  1.86781004e-01  1.52155146e-01 -1.08956844e-01
 -7.68696666e-02  4.09787260e-02 -1.51458010e-01 -2.03299299e-02
 -3.22381705e-02  1.29084319e-01  9.51432362e-02 -3.18825185e-01
 -6.16137572e-02  3.89010102e-01 -4.85484749e-01  6.33857250e-02
 -6.73989579e-02  4.07187194e-01 -6.65498972e-02 -5.14120571e-02
  4.04536694e-01  2.00849250e-01 -1.44638494e-02 -2.33509764e-02
 -5.15326671e-02 -3.85519229e-02  1.39307544e-01 -4.12762240e-02
  3.39985549e-01 -1.12379521e-01 -5.04998565e-02 -3.25062387e-02
 -1.84187293e-02 -5.85415624e-02 -6.53611347e-02 -2.93473359e-02
 -4.83445860e-02 -5.96290380e-02 -1.78013276e-02  2.38300338e-01
 -5.67847490e-02  3.96337003e-01 -3.59954983e-02 -1.14456322e-02
 -2.23479234e-02 -1.86992995e-02  3.72463614e-02  4.81772237e-03
 -1.31063148e-01 -3.37627232e-02 -5.55649102e-01 -8.62413794e-02
 -1.64165571e-01 -7.50049278e-02  3.38089108e-01  9.38945189e-02
  2.49636024e-01 -7.76027441e-02  1.82268880e-02  8.62239823e-02
  5.36881313e-02  6.69256002e-02 -2.69784518e-02 -8.17388967e-02
  5.53562939e-02  2.20441464e-02 -8.43733624e-02 -4.25879769e-02
 -3.84790450e-02 -7.74495900e-02 -5.62632494e-02 -1.88995093e-01
 -6.90120608e-02 -3.21981847e-01 -5.40969446e-02 -5.44696376e-02
 -4.64494415e-02 -5.81749901e-02  2.76100308e-01 -1.10090926e-01
 -7.97032937e-02 -2.44745649e-02 -5.38262688e-02 -3.00932199e-01
  1.00911908e-01  7.32409060e-02 -1.43781975e-01 -4.52914834e-02
  3.32754672e-01 -3.56339574e-01  1.84623078e-01 -1.80773333e-01
  5.14799617e-02 -1.01733431e-02 -2.91526113e-02 -2.96827406e-02
 -3.09142582e-02 -6.46713153e-02 -4.63977791e-02  2.15597212e-01
  1.87479425e-03 -7.42741376e-02 -4.81956154e-02 -1.10134996e-01
 -3.86720657e-01 -1.15516961e-01 -2.93332368e-01  1.88289862e-02
  3.60111654e-01 -8.71179327e-02  9.76633877e-02 -2.60471161e-02
 -2.13296816e-01  3.08235705e-01 -6.20728210e-02  2.80139983e-01
 -6.90986067e-02 -1.37336865e-01 -4.26442884e-02 -3.88124764e-01
 -3.95822488e-02 -1.18775636e-01  9.90202948e-02 -4.47634645e-02
 -9.31913182e-02  8.72239172e-02 -1.02081381e-01  1.91433787e-01
  1.89593628e-01 -6.71764277e-03 -1.66049063e-01 -8.42745453e-02
 -1.01302192e-02 -6.24428838e-02  1.77441776e-01 -7.42480950e-03
  1.09476619e-04 -6.79545552e-02 -3.08172386e-02 -4.89583798e-02
  6.20593578e-02 -7.32716545e-02  2.94733252e-02 -6.01096004e-02
  1.60380418e-03 -3.19614373e-02  1.72993794e-01  2.07007453e-01
  9.79878567e-03 -7.38047063e-02 -4.98247184e-02  8.00988600e-02
 -8.23479518e-02  1.22657798e-01 -1.78915992e-01 -7.65643120e-02
 -5.10592312e-02 -8.95326287e-02 -6.72807470e-02 -5.42494170e-02
  6.25349209e-03  1.86012790e-01 -9.24010724e-02  9.46626067e-02
  2.79413797e-02 -9.58088040e-02 -8.16151947e-02 -9.99832153e-03
 -4.57268171e-02 -4.73378934e-02 -1.16262466e-01  1.23269320e-01
  1.25693474e-02 -8.17067642e-03 -1.33325949e-01 -3.86801422e-01
  1.32830009e-01 -9.20902640e-02  3.62482220e-01 -8.04836378e-02
 -1.38872946e-02 -1.83202818e-01 -6.04500249e-02  8.58019367e-02
  1.57930329e-01 -5.27592786e-02 -6.08254746e-02 -1.39455080e-01
 -1.23782247e-01 -7.11163208e-02  5.04418369e-03 -7.33683407e-02
 -4.61770454e-03 -6.27852455e-02  4.62042503e-02 -1.01259969e-01
 -4.14521433e-02 -2.44843252e-02 -1.76652551e-01  3.04994851e-01
  2.14906678e-01 -3.01025897e-01  1.59274310e-01 -2.60212421e-02
 -8.99278522e-02 -5.47666401e-02 -1.62239388e-01 -1.69626802e-01
  1.09711187e-02 -6.98038489e-02 -6.75713271e-02 -1.48420800e-02
 -7.03947991e-02 -7.61571750e-02  2.34617829e-01 -2.77135819e-01
  9.15066749e-02  7.30027556e-02  1.92546472e-01  3.14960070e-02
 -3.60474661e-02 -5.35896011e-02 -5.19653931e-02 -3.57822403e-02
 -4.08083685e-02 -5.27033396e-02 -5.77052981e-02 -1.65017638e-02
  8.07960480e-02 -1.41986400e-01 -4.82615419e-02 -6.98127151e-02
  6.49908036e-02 -1.96355388e-01  4.01480436e-01 -3.51661816e-02
  5.64119369e-02  1.59571469e-01 -5.30531034e-02 -1.70796905e-02
 -6.10905029e-02 -1.74120162e-02 -7.67937824e-02 -4.80878428e-02
 -4.82757725e-02 -2.54918057e-02 -8.52264613e-02 -4.71699387e-02
  4.09554541e-01 -5.78736186e-01  4.34520133e-02 -4.77591008e-02
 -3.75230052e-03 -7.11628646e-02 -1.32134175e-02  2.94065297e-01
  1.93326343e-02 -1.99076340e-01 -1.66487440e-01 -3.21989089e-01
  1.67917252e-01 -3.53627577e-02 -1.59124881e-02 -5.60892858e-02
 -5.61368167e-02 -1.07233308e-01 -2.97305107e-01  3.94679487e-01
  5.49769029e-02 -7.46766999e-02  1.90020904e-01 -5.82648888e-02
  1.46674439e-01 -1.13776579e-01 -1.92762334e-02  1.90969005e-01
 -7.68601224e-02  5.01656175e-01 -1.10848725e-01 -8.20851997e-02
 -9.97717902e-02 -8.62028375e-02  7.49877810e-01  4.00290303e-02
 -5.03656156e-02 -4.56189886e-02 -1.66542102e-02 -5.06242812e-02
 -1.61566548e-02  2.46633232e-01 -3.08636546e-01 -7.74983689e-02
  1.97147906e-01 -9.39870626e-02 -6.44840300e-02 -1.17558107e-01
  1.28930686e-02 -3.53502631e-01 -6.54484704e-02 -7.95459896e-02
  2.23738432e-01  1.15350381e-01 -9.73227397e-02 -1.02113187e-01
 -1.16691478e-01  7.85964634e-03 -9.11320448e-02  1.40912160e-01
  4.97264042e-02 -6.06940128e-02 -5.05871065e-02 -7.28555322e-02
  1.98698416e-02 -7.25085214e-02 -3.57743874e-02 -3.67042124e-02
 -4.04356033e-01  3.47958179e-03 -5.90912662e-02 -1.47477895e-01
 -3.37622128e-02  1.02770343e-01 -4.79837134e-02 -3.65887396e-02
 -4.72284630e-02 -3.27030420e-02 -3.73433642e-02 -3.56748030e-02
 -3.43885601e-01 -7.27391019e-02 -3.92761678e-02  2.76724517e-01
 -5.46531975e-02 -4.66144271e-02 -6.30428344e-02  4.23839018e-02
 -3.20085585e-01 -4.52615768e-02 -5.89502715e-02 -9.96407494e-02
  2.02112824e-01  2.13079631e-01  5.40562160e-03  8.61487910e-02
 -3.81100029e-02 -3.61467376e-02  2.43459314e-01  2.75318474e-01
 -3.62177715e-02 -2.26814132e-02 -1.04897343e-01  1.56010985e-01
 -2.07508132e-01 -3.72314677e-02  1.68366596e-01 -5.82495704e-02
 -7.06489533e-02  4.63201366e-02 -4.34479639e-02 -6.63378984e-02
 -7.10194334e-02 -4.51172441e-02 -1.01608656e-01 -4.04195994e-01
 -1.44970968e-01 -7.37688392e-02 -7.15502724e-02  1.92951575e-01
  2.01844737e-01  2.26916730e-01  8.56383145e-02  1.49874568e-01
 -9.99959633e-02  7.41476342e-02 -2.93733831e-02 -1.30971164e-01
 -6.97962716e-02 -6.96408004e-02 -1.97465941e-02 -2.75584385e-02
 -5.54274321e-02 -1.05797492e-01 -2.58542337e-02 -4.55520339e-02
  3.16070795e-01 -1.56824384e-02  5.34947179e-02 -5.22885472e-02
 -2.80251205e-01 -7.77816400e-02 -4.91497144e-02  1.14739284e-01
 -4.92022783e-02 -1.15935132e-02 -7.97509179e-02 -5.99305704e-02
  1.27593294e-01 -1.04139350e-01  5.88742673e-01 -5.26514873e-02
  9.84213054e-02 -8.24576616e-02 -3.90501805e-02 -5.37904985e-02
  6.50277585e-02 -2.70687807e-02 -2.89228726e-02 -3.37131061e-02
 -6.99926983e-04 -9.94590521e-02 -3.89116891e-02  6.09382428e-02
 -5.27696125e-02 -6.71406160e-04  2.19634011e-01  3.03285927e-01
 -2.76997928e-02 -3.91680151e-02 -4.52291630e-02  2.11987600e-01
 -3.30298506e-02 -1.15200609e-01  7.03882217e-01 -1.37952836e-02
 -7.96312932e-03 -3.49053256e-02 -3.32957268e-01 -4.73570898e-02
  3.72907966e-02 -3.33703458e-02 -5.22789247e-02 -4.65811342e-02
 -5.39893880e-02  6.85524121e-02 -2.99420238e-01 -6.38490692e-02]
icon_model/dense_1/kernel:0
(512, 236)
[[-0.08326756 -0.04129368 -0.15471831 ... -0.28125757 -0.22936746
  -0.0997859 ]
 [-0.05848064  0.07461729  0.0272291  ...  0.03491173 -0.01906177
   0.00107858]
 [ 0.10944547  0.03396483 -0.07059558 ...  0.22994901 -0.22528985
   0.0028902 ]
 ...
 [ 0.16501953  0.18651389  0.09078533 ...  0.10395596 -0.0708585
  -0.13876964]
 [-0.08657299 -0.00241959  0.05350498 ...  0.03257657 -0.15458171
  -0.29673856]
 [-0.09553412 -0.09640697 -0.01805317 ... -0.01865798 -0.07785754
   0.02664677]]
icon_model/dense_1/bias:0
(236,)
[-0.16027777 -0.11931992 -0.08783659 -0.03248591 -0.10903586 -0.06738174
  0.00902017  0.06871761  0.14638452  0.01256926 -0.01958619  0.2890968
 -0.10993036 -0.03193229 -0.07655741 -0.01792941 -0.07073639 -0.14070196
 -0.02698829 -0.0814539  -0.04629256 -0.05238814 -0.10581406 -0.06855758
 -0.08131097 -0.05631572  0.64712256  0.06036735  0.00903883 -0.05309739
 -0.0751985  -0.03388328  0.02908623 -0.06729788 -0.10589014  0.04541565
 -0.11424339 -0.09753279 -0.02624416 -0.05273363  0.07232083 -0.08516961
 -0.05425118 -0.06617048  0.07861054  0.23041382 -0.07971393 -0.04790996
 -0.13733245 -0.05760883 -0.07436929 -0.13827948 -0.03959036  0.02242401
 -0.10866159 -0.0636602  -0.15458848 -0.11256994 -0.08893432  0.02439911
  0.20873302 -0.07343912 -0.07974481  0.00301471 -0.01664485 -0.1216796
  0.05417167 -0.10040987 -0.09594037 -0.00797131 -0.1106016  -0.03301748
 -0.05456176  0.14913124 -0.02486673 -0.0311588  -0.00919617 -0.02703464
 -0.1066671   0.01365383 -0.12697883 -0.13185321 -0.09398929 -0.00204817
 -0.10965484  0.07128239 -0.0269874   0.03960343 -0.11833478 -0.05249355
 -0.00232004 -0.15041651  0.24171568  0.18398039 -0.28338838  0.00417727
  0.00344741 -0.1012221  -0.09541367 -0.07088985 -0.12072772 -0.00580256
 -0.00192059  0.00431993 -0.04440144 -0.07382669 -0.08932984  0.01380744
 -0.05596646 -0.11189106 -0.09004153 -0.02845276 -0.0863948   0.45258325
 -0.04334228 -0.18604164 -0.10201426 -0.02979094 -0.06689371 -0.10152233
 -0.3647094  -0.08635664 -0.0213257  -0.07837813 -0.07629526 -0.07436265
 -0.1222747  -0.21077664 -0.03260506 -0.02243307 -0.11785692 -0.18430701
  0.04011511 -0.18930273 -0.05923767 -0.07017836 -0.03144205 -0.087335
  0.07750235 -0.11811668 -0.02656529 -0.04167864 -0.0164827  -0.02867272
 -0.14238407  0.01214769  0.00359393 -0.0255196  -0.11916976 -0.05529925
 -0.0545381  -0.08046634 -0.02370902 -0.12648669 -0.07018358 -0.16923484
  0.10283084  0.0752839   0.01475825 -0.1144823   0.1563516   0.04824498
 -0.08788528 -0.07730532 -0.09540462 -0.09382227 -0.11869537 -0.03608201
 -0.10428671 -0.06282005 -0.05790686 -0.12263204 -0.04798884  0.14489235
 -0.04183017 -0.09409696 -0.10822708 -0.08887057  0.11762765  0.13648976
  0.03237     0.12096579  0.01557107  0.02989371 -0.0372251   0.10517182
 -0.00376638 -0.10494984 -0.22843936 -0.11482634 -0.03474746  0.01975361
 -0.08912184 -0.14050731 -0.04365824 -0.0989671  -0.03875461 -0.11044184
 -0.11118913 -0.09352332 -0.2563271  -0.03833153  0.08119752 -0.05372986
 -0.16608515 -0.06753126 -0.05408151 -0.06303532 -0.08888536 -0.02694998
 -0.08731213  0.01882299 -0.0595012  -0.03398804 -0.11167641 -0.06065775
 -0.00651625 -0.02883091 -0.09567352 -0.07536436 -0.00352534 -0.12695411
 -0.00220306 -0.11467316 -0.08063328 -0.02279703 -0.08681502 -0.02936059
 -0.09760739  0.02837543  0.01122483  0.3686451   0.14114371 -0.4697262
  0.53714633 -0.36246184]
