icon_model/conv2d/kernel:0
(5, 5, 1, 6)
[[[[-0.14011279  0.02222602  0.14471172 -0.02825158 -0.09224907
    -0.31670243]]

  [[-0.16959123  0.11546668 -0.08698647  0.12760372  0.15979241
    -0.02209085]]

  [[-0.12421003 -0.08265342  0.02552042  0.31960675  0.09739338
     0.26452538]]

  [[ 0.24810736  0.0205953  -0.03666883 -0.05997623 -0.13222395
     0.02599275]]

  [[ 0.2181741   0.0204187   0.14377016 -0.3280133  -0.00121266
     0.08904764]]]


 [[[ 0.15072498 -0.16718762  0.12042935  0.1377595   0.09020724
     0.05862746]]

  [[-0.10077137  0.16628222  0.2036762  -0.09089894  0.31271425
    -0.02750581]]

  [[-0.18932435  0.25051674  0.5453272   0.13262784  0.19718604
     0.1505505 ]]

  [[-0.11755344  0.29068342  0.0628872  -0.24023136 -0.29015
    -0.16369627]]

  [[ 0.25594643 -0.32597613  0.19004634  0.05216657 -0.14129698
    -0.02813718]]]


 [[[ 0.14278492  0.04886516 -0.26621202  0.02381971 -0.20036547
     0.27618283]]

  [[-0.0189762  -0.07978123 -0.13836206  0.00178184 -0.1512312
     0.21053074]]

  [[-0.36949715 -0.08718958 -0.02966313 -0.04371766 -0.24109781
     0.56312686]]

  [[-0.17301051 -0.2617251  -0.18944247  0.16901276  0.04857778
     0.10082179]]

  [[-0.13943876 -0.10341486 -0.11258041  0.14730245  0.00509003
     0.16569781]]]


 [[[ 0.14042862  0.15579933  0.10064657  0.12175559  0.16363542
    -0.05834886]]

  [[ 0.22859937  0.05219037 -0.00441859 -0.21761577  0.1328009
     0.02455348]]

  [[-0.33077893 -0.10990652  0.12853241 -0.02324119 -0.26883492
     0.09549551]]

  [[-0.09830086 -0.12604521  0.20796597  0.19645602  0.23685372
     0.00471338]]

  [[ 0.12830475  0.25349286 -0.05303621 -0.09168598  0.15053396
    -0.03475524]]]


 [[[-0.02955149 -0.02902758 -0.07861193 -0.25780058  0.05969365
     0.04540237]]

  [[ 0.04796462 -0.19416946  0.10451587  0.20283478 -0.36746866
    -0.1573664 ]]

  [[-0.12353801 -0.04084256  0.1826225  -0.16639116  0.17375702
     0.23367997]]

  [[ 0.03012673  0.1228203  -0.00392256  0.01186272  0.17701797
     0.04504963]]

  [[ 0.01720269  0.17361341 -0.15022507  0.22341247 -0.01250625
    -0.14726242]]]]
icon_model/conv2d/bias:0
(6,)
[-0.07436024  0.0493622   0.08283813 -0.07497184  0.18985872  0.05003271]
icon_model/batch_normalization/gamma:0
(6,)
[1.246163  1.8618672 1.0693372 1.7035735 1.9020188 1.1388233]
icon_model/batch_normalization/beta:0
(6,)
[-0.05810174 -0.44523916 -0.56377584 -0.57118267 -0.54366845 -0.536849  ]
icon_model/dense/kernel:0
(864, 512)
[[ 0.00598003  0.07788236  0.01878131 ...  0.01415099  0.03098452
  -0.02265021]
 [ 0.04958447  0.08841892  0.08686042 ... -0.03209098  0.00384861
  -0.05878632]
 [-0.07306723 -0.10032234  0.07245688 ... -0.04157121 -0.0563353
  -0.01011024]
 ...
 [ 0.06641844  0.09521381  0.01760202 ... -0.05894554  0.04567242
  -0.05376754]
 [ 0.02297617  0.10217703 -0.01054201 ...  0.01160627 -0.03631967
   0.0249609 ]
 [ 0.0395147  -0.06504772  0.16560213 ... -0.06439544  0.04658499
  -0.0164445 ]]
icon_model/dense/bias:0
(512,)
[ 7.51360953e-02  2.63524130e-02  1.89439729e-02  1.81834325e-01
 -2.41585355e-02 -2.53689718e-02 -2.98831314e-02 -4.36447710e-02
  1.10025838e-01  4.76539396e-02 -4.24858328e-04 -1.18795251e-02
 -1.16510028e-02  7.33358562e-02 -1.23651307e-02 -1.02926642e-02
  4.43675630e-02 -4.29169983e-02 -4.52787392e-02 -6.47533014e-02
 -2.04445142e-03 -5.10150082e-02 -1.77897960e-02 -1.15893353e-02
  4.37391968e-03 -6.94845095e-02 -9.52233560e-03  7.83649087e-02
 -4.58227992e-02 -2.80017667e-02 -9.82916448e-03 -1.38100050e-02
 -5.71501907e-03  9.47110951e-02 -1.68220438e-02 -4.81580896e-03
 -1.87385380e-02 -1.23912087e-02 -1.03977546e-02 -3.51559706e-02
 -6.40864857e-03 -3.55213732e-02  6.02889061e-02 -1.42673887e-02
 -2.61507109e-02 -3.37262228e-02  3.37877404e-03  1.33640449e-02
 -1.10368013e-01 -7.58842472e-03 -7.28876749e-03  2.61832923e-01
 -2.21123025e-02 -1.43581964e-02 -1.58198215e-02  4.63514440e-02
 -2.47091730e-03  4.90079820e-02 -9.43335239e-03 -4.79667680e-03
 -5.90615114e-03 -6.99406071e-03 -4.33074310e-03 -9.81179066e-03
 -1.48012973e-02 -6.02418603e-03 -1.05086211e-02 -3.95850185e-03
 -3.48288231e-02 -9.43825021e-03  8.00216645e-02 -1.34458323e-03
 -1.26762185e-02 -1.41069908e-02 -1.39291184e-02  1.30365565e-01
 -5.45203732e-03 -1.74195804e-02  4.00688984e-02 -9.97371878e-03
 -1.34760933e-02 -2.54272837e-02 -1.42861649e-01 -2.78021358e-02
 -1.04526272e-02 -7.74207665e-03  4.22149897e-02  9.46529508e-02
  1.25841990e-01 -2.27282643e-02 -3.71132158e-02 -1.49328513e-02
  8.80717486e-02  1.65390402e-01 -7.11285556e-03  5.04915863e-02
  1.51288323e-03 -1.04345847e-02 -6.24866858e-02 -2.29289327e-02
 -1.44834630e-02 -5.57637401e-02  1.98848188e-01 -3.27656628e-03
 -1.90021824e-02 -1.70005336e-02 -3.31430067e-03 -1.35597158e-02
  1.69743195e-01 -3.75864655e-02 -4.16872725e-02 -3.16493623e-02
 -1.42875966e-02 -9.45574546e-04 -2.36185528e-02 -4.36830847e-03
 -1.38517804e-02  3.91943008e-02  2.01843366e-01  2.27182880e-02
 -3.77330668e-02 -5.47188707e-03 -2.45922599e-02 -4.82998416e-02
 -9.25157126e-03 -3.50464582e-02  1.23805769e-01 -1.03617804e-02
 -1.17646735e-02 -6.05817512e-03 -3.44153424e-03 -1.98942032e-02
 -5.68351485e-02 -6.45349547e-03 -2.68515851e-02 -4.34764707e-03
  5.45070916e-02 -1.18470127e-02 -6.31498620e-02 -4.20944691e-02
 -6.05480792e-03 -1.55902326e-01 -1.06032128e-02 -7.32798129e-02
 -1.20287342e-02  4.75652255e-02 -1.49171837e-02 -1.20397517e-02
 -1.53008224e-02 -6.20492809e-02 -1.91760007e-02 -1.74842253e-02
 -6.47831848e-03  4.25297813e-03 -2.16326807e-02  5.26262559e-02
 -1.09106181e-02 -2.59785987e-02 -3.12799066e-02 -4.85189073e-03
 -8.95576924e-03 -4.31461260e-03  1.26192376e-01 -2.69321725e-02
  1.24602392e-01 -3.31652090e-02 -2.44779848e-02 -1.04861921e-02
  1.04828039e-03 -6.34953380e-03  1.39487892e-01 -1.55169144e-02
 -4.46740799e-02 -1.62839778e-02 -4.12785029e-03  1.01508066e-01
  1.47035584e-01  1.55919548e-02 -2.08738949e-02 -5.72467875e-03
 -6.21081330e-03 -4.66409922e-02 -9.18185618e-03  9.70447734e-02
 -4.48778309e-02 -9.20648593e-03 -9.20417439e-03  1.21010937e-01
  7.89994225e-02  9.48708579e-02 -1.22405840e-02 -5.78475324e-03
 -1.44438129e-02  1.69614360e-01 -3.97113413e-02 -1.27761280e-02
 -1.76901594e-02 -7.28712184e-03  1.60137445e-01 -5.30279661e-03
 -2.77469140e-02 -3.43339853e-02 -1.39176855e-02  3.73245333e-03
  9.23441909e-03 -2.57427990e-02 -1.19805578e-02 -8.15936476e-02
 -1.96763352e-02 -1.41321840e-02 -6.18210621e-03  7.67444968e-02
 -2.58923285e-02 -8.82368442e-03 -1.04963658e-02 -7.44521618e-03
 -5.10064177e-02 -2.72067878e-02  4.98676561e-02 -5.13004623e-02
 -3.88038829e-02 -4.65355106e-02  8.99935067e-02 -3.17160860e-02
 -1.25311036e-02 -1.09488759e-02 -5.22335479e-03 -4.62275743e-02
  1.07597947e-01 -4.42374200e-02 -4.80576465e-03 -7.38163991e-03
 -2.43145227e-02  8.89806524e-02 -1.23625323e-02 -6.46070298e-03
 -8.74280091e-03 -1.10131754e-02 -2.11297814e-02 -3.84109356e-02
 -6.97819367e-02 -2.20199097e-02 -5.53737693e-02 -5.33948950e-02
 -2.96828486e-02 -4.06534225e-02  4.85058017e-02 -3.35408524e-02
  1.14446737e-01 -4.39662440e-03  1.32955745e-01 -4.31385003e-02
  7.05897361e-02 -6.87025487e-03 -2.48825271e-02  7.17425793e-02
  7.58704394e-02 -7.96778221e-03 -1.96758173e-02 -2.28984747e-03
 -1.25024524e-02  5.89658925e-03 -3.48988664e-03 -8.08793772e-03
  4.74721864e-02 -5.14305830e-02 -7.52556929e-03 -1.06623648e-02
 -9.77482367e-03 -9.18256491e-03 -3.64227546e-03  3.52500342e-02
 -6.49444247e-03 -3.35450843e-02  7.49899372e-02  6.53905869e-02
 -3.30639929e-02  4.13365439e-02 -1.41655011e-02 -3.88308661e-03
  4.75930087e-02 -6.22623190e-02 -1.62869498e-01 -1.12035908e-02
 -4.94233668e-02  1.17924309e-03  3.34287845e-02 -5.95041644e-03
  2.49578413e-02 -1.05621452e-02 -2.12404449e-02  2.90772691e-03
 -4.70758490e-02 -7.34166568e-03  1.48151601e-02  6.36402741e-02
  2.06866357e-02 -6.94354344e-03  6.60840329e-03 -2.18042769e-02
 -2.69353371e-02 -1.12372851e-02 -5.90204867e-03 -1.46839265e-02
 -3.78231704e-02 -4.58294712e-03 -6.47937059e-02 -1.17682368e-02
 -7.89248664e-03 -4.24735248e-02  2.88055807e-01 -8.37077200e-03
 -1.57615952e-02 -4.15574126e-02  5.20185158e-02  1.43139303e-01
 -1.57211777e-02 -3.57056446e-02  1.33094415e-01 -9.29980725e-03
 -1.77077185e-02 -9.46307275e-03 -2.23328620e-02  1.75842762e-01
 -1.20185781e-02 -5.54830395e-03 -5.66624179e-02 -1.59356315e-02
  1.05265297e-01 -2.37552561e-02 -5.14473021e-03 -1.29228858e-02
 -1.10087227e-02 -1.00007355e-02  1.45083532e-01 -1.01099610e-02
 -4.41227779e-02 -9.58660524e-03 -6.90336712e-03 -1.93699449e-02
  3.07955313e-03 -1.01581579e-02  5.83443865e-02 -1.79876816e-02
  6.99318713e-04 -1.03945201e-02 -2.40942221e-02 -5.12389317e-02
 -3.81002650e-02 -5.46932174e-03  4.05127369e-02 -2.89010834e-02
 -1.00363549e-02 -2.44141016e-02  5.42230234e-02  1.15748204e-01
 -3.00791748e-02 -2.14756392e-02 -7.77721219e-03 -1.25007201e-02
 -2.45398507e-02  8.73289108e-02  1.32802725e-01 -4.19712290e-02
 -3.81765850e-02  7.94387683e-02 -7.19986390e-03 -1.27000418e-02
  1.25386016e-02 -2.21232884e-02  9.35476497e-02  1.38977226e-02
 -8.49673152e-03 -2.22703945e-02  3.69388089e-02 -1.25479568e-02
 -2.08524447e-02 -2.59234291e-02 -1.23874210e-02 -9.44924261e-03
  6.31143674e-02 -9.83078685e-03 -1.50853312e-02 -3.90859656e-02
 -7.28671998e-02 -8.10894184e-03  6.28891289e-02  2.86505017e-02
 -4.23942544e-02 -3.70672569e-02 -6.76961429e-03 -2.55039986e-02
  1.65520504e-01 -9.32676811e-03 -3.75372329e-04 -5.03177680e-02
 -3.06566004e-02 -2.31423266e-02 -9.59794875e-03  2.04513059e-03
 -2.53934581e-02 -1.02148894e-02 -2.91680694e-02 -2.15033125e-02
  1.94307026e-02 -7.03556975e-03 -3.66673395e-02 -1.02478331e-02
 -3.86312008e-02 -2.43012533e-02  1.90726691e-03 -7.68489623e-03
 -3.73787526e-03 -8.65021255e-03  4.01661098e-02 -1.38766319e-02
 -2.78908946e-02 -2.39866376e-02  7.90929981e-03 -5.06442785e-02
 -1.54329184e-02 -2.31447015e-02 -3.74966040e-02 -1.65670551e-02
 -2.21582949e-02  1.05099194e-01 -3.79960909e-02 -4.65662742e-06
  1.15408950e-01 -8.64216220e-03 -6.87372219e-03  1.52734563e-01
 -2.25181691e-02 -3.01679689e-02 -1.48645288e-03 -4.08788510e-02
 -4.13163565e-03  4.67469022e-02 -3.31681482e-02 -3.85135487e-02
 -2.84043103e-02 -2.01502573e-02 -2.21809447e-02  4.62115146e-02
 -3.31507027e-02 -3.81300002e-02  3.59592736e-02 -2.58602072e-02
 -1.01969624e-02  8.96364152e-02 -1.13292541e-02 -9.02819820e-03
 -3.67206382e-03 -8.39994941e-03 -8.06889683e-03 -5.09669222e-02
 -2.47257408e-02 -7.48489657e-03 -2.16632523e-02 -2.36104429e-02
 -2.14747563e-02 -1.44751882e-02 -1.56994592e-02 -8.12716410e-03
 -7.66642317e-02 -6.48867562e-02 -1.21054854e-02 -2.44782362e-02
  4.02989425e-02 -3.84368040e-02 -1.91457327e-02 -6.00146921e-03
 -2.04661619e-02  7.02912062e-02  5.43329492e-02 -3.87257412e-02
 -4.89214621e-03  8.60879347e-02 -1.59847233e-02  2.15669230e-01
 -1.02846920e-02 -8.59617908e-03  1.51458710e-01 -2.09578779e-03
 -4.51625371e-03 -2.42105927e-02 -4.20825854e-02  1.34349465e-01
 -1.16027007e-02 -2.45746318e-02 -1.37486113e-02 -6.19299896e-03
 -1.88988205e-02 -3.62489372e-02 -1.52328964e-02  1.16379924e-01
  4.24383096e-02  5.81109757e-03  5.01616150e-02 -2.64421701e-02
  1.81440115e-01 -4.36150143e-03 -1.38951754e-02 -3.61836590e-02
 -4.51523773e-02  1.25399290e-03 -3.35128270e-02 -4.31436189e-02
 -1.59223117e-02 -2.38403492e-02 -1.61106288e-02 -3.44229536e-03]
icon_model/dense_1/kernel:0
(512, 236)
[[-0.02563472  0.05958582 -0.07269897 ... -0.35708883 -0.35497996
  -0.25425738]
 [-0.11631385  0.15374838  0.08182409 ... -0.09671254 -0.12865956
  -0.06691909]
 [-0.29578736  0.00489738 -0.18197753 ...  0.12049269 -0.5987022
   0.1196667 ]
 ...
 [ 0.00580313 -0.03701311 -0.03484643 ... -0.02792102 -0.12776889
  -0.11250528]
 [-0.08083411  0.01135642  0.00073228 ...  0.04169921  0.01895797
  -0.09487547]
 [-0.091392   -0.04285999 -0.06504549 ... -0.01486984 -0.08116861
  -0.0025831 ]]
icon_model/dense_1/bias:0
(236,)
[-0.1413092  -0.04791554 -0.07008631 -0.05812424 -0.1429296  -0.08480512
  0.02259093 -0.00078737 -0.05273434 -0.02874354  0.01599852 -0.13778688
 -0.1017551   0.00592608 -0.05889344 -0.05278341 -0.04721861 -0.0319262
 -0.03681928 -0.08381619 -0.06765202 -0.05868801 -0.07487051 -0.02476026
 -0.05059947 -0.00214394  0.19100755 -0.062285    0.00119065 -0.09847914
 -0.08219162 -0.05188095 -0.00047026 -0.04185876 -0.13700624 -0.04142505
 -0.03937876 -0.01408924 -0.07023184 -0.04424322 -0.1212437  -0.08252992
 -0.08286943 -0.10546718 -0.06882953 -0.12309813 -0.03021516 -0.12801498
 -0.0421409  -0.09932632 -0.07931651 -0.08337189 -0.04752685 -0.06052184
 -0.02761249 -0.01945942 -0.0221831  -0.08354963 -0.06839825 -0.0426826
 -0.04917387 -0.07407384 -0.00603727 -0.00711794 -0.09225924 -0.08547673
 -0.04025031 -0.08422    -0.11013392 -0.03261281 -0.09223999 -0.06693627
  0.2449802  -0.21551512 -0.06765597 -0.01029097 -0.00947937 -0.0807908
 -0.06586538 -0.00618155 -0.04994074 -0.06107688 -0.01593508 -0.00355237
 -0.08004887  0.09487846 -0.03403969 -0.05852588 -0.04056277 -0.02837908
 -0.04798824 -0.05617099  0.16452584  0.01705564 -0.248767   -0.07923952
 -0.03446453 -0.00297536 -0.0259355  -0.07979666  0.00607299 -0.06833017
 -0.0500862   0.01064999 -0.0231056  -0.02183286 -0.03761518 -0.02955296
 -0.05623782 -0.08456176 -0.07000698  0.04767068 -0.02177483 -0.12781154
  0.05357971 -0.03581002 -0.06642909 -0.03943038 -0.05633604 -0.07366626
  0.14155155 -0.05831139 -0.05957588 -0.11652386 -0.0239491  -0.07735062
 -0.05932974 -0.09786407 -0.09524772 -0.00230364 -0.04492819 -0.0628543
 -0.0539837  -0.0690574  -0.10938706 -0.0344396  -0.05047773 -0.05634689
 -0.06250953 -0.07772906 -0.06888819 -0.04403902 -0.04694574 -0.05868892
 -0.02415686 -0.062916   -0.02027717 -0.03277149 -0.03913301 -0.06594609
 -0.00622023 -0.06017582 -0.10948595 -0.05720814 -0.04052709  0.15445228
 -0.16852252 -0.01742181  0.01872794  0.21030606 -0.1331034   0.02839706
 -0.04096487 -0.04649938  0.05967329 -0.02626042 -0.02346995 -0.05097307
 -0.01130973  0.03047973 -0.09178741 -0.05782822 -0.02390509 -0.10431349
 -0.07107957 -0.07341088 -0.00146948 -0.04687323  0.00292565 -0.04752079
 -0.06969898 -0.04389081 -0.08030625 -0.03590543 -0.01344313  0.03673567
 -0.01404421 -0.08425198 -0.07189467 -0.02587199 -0.08294936 -0.0645424
 -0.05912423 -0.11051875 -0.10079817 -0.01341499  0.01545525 -0.11808072
 -0.05246353 -0.03198313 -0.04557307 -0.09152149  0.05603782  0.06034932
 -0.0194447  -0.01791804 -0.07155016 -0.11063366 -0.10145079 -0.05503398
 -0.07701516 -0.01433817  0.00879319 -0.13010171 -0.00737996 -0.05924558
  0.01089417 -0.01421832 -0.08612919 -0.02130639 -0.05976069 -0.02550375
 -0.01054682 -0.04559172 -0.09620906 -0.10997596 -0.08238304 -0.05496474
 -0.07041139 -0.04147923 -0.1286829  -0.11078519 -0.11456969  0.2912225
 -0.03364592 -0.22448151]
