icon_model/conv2d/kernel:0
(5, 5, 1, 6)
[[[[-0.17192401  0.12864472  0.06858455 -0.04958167 -0.17768097
    -0.33189943]]

  [[-0.22796424  0.12513095 -0.04891367  0.10095392  0.07913291
    -0.08120506]]

  [[ 0.00479012 -0.09487381 -0.07079277  0.21244836  0.18979701
     0.22444925]]

  [[ 0.19181396  0.03693945  0.1070779  -0.07761753 -0.08163454
     0.14675602]]

  [[ 0.07933395  0.04082488  0.18141879 -0.16001087  0.01802222
     0.07928146]]]


 [[[ 0.15898576 -0.14030957  0.06917986  0.16161816  0.11597323
     0.07561639]]

  [[-0.04630222  0.16283467  0.18566695  0.06971936  0.28358033
     0.11506525]]

  [[-0.1238727   0.15417923  0.14334597  0.03829751  0.08899016
     0.10594494]]

  [[-0.12062455  0.26899883 -0.13238709 -0.18911622 -0.3354477
    -0.11555795]]

  [[ 0.14794043 -0.22174565  0.07183025  0.07917086 -0.06752121
    -0.03019377]]]


 [[[ 0.05488123 -0.04620406 -0.23268926 -0.05250024 -0.08937647
     0.21098989]]

  [[ 0.15016988 -0.05627822 -0.08927409 -0.04008727 -0.07552817
     0.11603704]]

  [[-0.21364954  0.02702676 -0.1555836  -0.03797368 -0.15140225
    -0.18006569]]

  [[-0.08539825 -0.20590527 -0.29091758  0.19406101  0.1092135
    -0.07567435]]

  [[-0.01108589 -0.16680913 -0.13299572 -0.0092152   0.02222667
     0.02657418]]]


 [[[-0.01089115  0.10775293  0.13857345  0.10515265  0.073757
     0.01393601]]

  [[ 0.2682905  -0.0385191   0.00439006 -0.13472064  0.14316505
    -0.00130081]]

  [[-0.19115773 -0.06170163  0.18615219 -0.17827171 -0.27054426
    -0.1100086 ]]

  [[-0.1397111  -0.20843884  0.3184372   0.21319135  0.1526211
     0.07785595]]

  [[ 0.09375843  0.14787844 -0.00932169 -0.01017549  0.12495411
     0.08870837]]]


 [[[-0.13172974 -0.07765958 -0.01766407 -0.08066271  0.07171211
     0.08947134]]

  [[ 0.16640286 -0.16878915  0.04289486  0.11062824 -0.30381578
    -0.15198003]]

  [[ 0.06644016  0.02488325  0.03995655 -0.3512447   0.15994021
     0.11511615]]

  [[-0.13872828  0.1380576   0.01810719  0.03910532  0.13566868
     0.1457921 ]]

  [[-0.09377282  0.1756789  -0.09500667  0.26424548 -0.06351557
    -0.11480795]]]]
icon_model/conv2d/bias:0
(6,)
[-0.02780555 -0.00177236  0.05418766 -0.08463257  0.06246084  0.01703703]
icon_model/batch_normalization/gamma:0
(6,)
[1.540688  1.461057  1.4387193 1.657987  1.6064306 1.0739006]
icon_model/batch_normalization/beta:0
(6,)
[-0.80410886 -0.602268   -0.6833083  -0.6800581  -0.6560965  -0.35151643]
icon_model/dense/kernel:0
(1176, 512)
[[-0.06976587  0.05805058 -0.05399087 ... -0.04409995 -0.07309348
  -0.0669448 ]
 [-0.05452438  0.03290156  0.05621658 ... -0.02137647 -0.06198119
  -0.14213063]
 [-0.01279354 -0.02390504 -0.01918808 ... -0.05226014 -0.05086319
  -0.00912818]
 ...
 [-0.00952495  0.01973678 -0.0331009  ...  0.07314891 -0.07479519
  -0.10796432]
 [-0.06311022 -0.01998473 -0.0073841  ...  0.04768813  0.00494881
  -0.01562724]
 [ 0.03714439  0.05554477 -0.06901149 ... -0.02711524  0.07797546
  -0.04800609]]
icon_model/dense/bias:0
(512,)
[-5.34028634e-02 -1.83104370e-02 -7.99343809e-02 -3.58090140e-02
 -1.45929074e-03 -7.41927251e-02  1.16121940e-01 -2.41353940e-02
 -8.77189785e-02 -4.43133749e-02  1.04808375e-01  2.35371143e-02
  3.18977237e-02 -2.37366166e-02 -9.01210774e-03 -4.33610938e-02
 -3.76442634e-02 -2.82811802e-02 -4.34334874e-02  8.85111839e-02
 -1.06582148e-02  3.78745198e-02 -7.39091486e-02 -3.52555253e-02
 -3.05358265e-02 -2.75370758e-02 -1.34584174e-01  5.36932498e-02
 -2.46465877e-02 -3.44392173e-02  5.13720289e-02 -1.12950876e-02
 -4.61614430e-02 -6.66253418e-02 -1.30953165e-02 -3.87078337e-02
 -2.69399621e-02 -6.30241306e-03 -6.37487248e-02 -1.75598338e-02
 -2.95060948e-02 -3.27122882e-02  6.63141534e-02 -2.22828928e-02
 -2.15362441e-02 -1.39661599e-02 -1.87597722e-02  5.11816815e-02
 -9.48846117e-02  8.94362852e-02 -3.21882553e-02 -6.34808242e-02
 -2.82139387e-02 -3.07677798e-02 -4.03647535e-02 -3.11139263e-02
 -6.62017316e-02  8.21213871e-02 -3.98687907e-02 -5.48749827e-02
 -5.47195897e-02 -8.07764847e-03  9.94680151e-02  2.67882701e-02
  6.10661646e-03 -6.09297752e-02 -2.61037741e-02 -1.48363993e-01
 -1.15444157e-02 -4.90069948e-02 -1.03571778e-02 -4.57311161e-02
 -1.32341329e-02 -1.68708321e-02 -5.70527837e-02 -2.46054046e-02
  8.90146717e-02  7.83616751e-02  3.94588336e-02 -1.64008178e-02
 -6.39305543e-03  6.77463831e-03 -3.95304784e-02 -3.62891331e-02
 -1.73265729e-02 -5.15601821e-02 -1.67467780e-02 -9.48515162e-02
 -1.40181286e-02  1.26191288e-01 -1.27655417e-01  2.40116343e-02
 -3.21263671e-02  6.61740154e-02 -1.96108222e-02 -1.02026574e-02
  8.01371932e-02  6.12906329e-02 -2.08153930e-02 -3.06823347e-02
 -3.12393121e-02 -1.32640665e-02  4.17626500e-02 -9.87569150e-03
  5.36662228e-02 -3.36248353e-02 -1.50523437e-02 -3.27854156e-02
 -2.39467677e-02 -1.73051301e-02 -3.90403084e-02 -3.14878747e-02
 -1.11358743e-02 -4.84092757e-02 -5.21543548e-02  6.66703284e-02
 -4.29958031e-02  1.58758923e-01 -4.74938825e-02 -5.52084893e-02
 -4.21862900e-02 -1.47871571e-02 -5.92610287e-03 -9.21856239e-03
 -1.64028872e-02 -3.20932828e-02 -1.37545899e-01 -1.94064751e-02
 -4.64506336e-02 -4.35802378e-02  8.12289268e-02  4.21685465e-02
  5.24658337e-02  2.03646310e-02 -9.53137316e-03  2.48760208e-02
  1.62288044e-02 -3.21963057e-02 -1.97651517e-02 -4.10509892e-02
  1.62602495e-02 -2.76023280e-02 -3.31743881e-02 -1.96551476e-02
  2.32925564e-02  4.29219799e-03 -4.15420793e-02 -4.00354676e-02
 -5.91436103e-02 -1.18937522e-01  6.48335833e-03 -2.42975261e-02
 -1.95013992e-02 -3.23693790e-02  5.20376004e-02 -1.02222674e-02
 -2.82962248e-02 -3.05444803e-02 -2.72640474e-02 -1.03985198e-01
  3.54945697e-02 -4.06080820e-02 -4.37110476e-02 -6.72486797e-02
  1.16488449e-01 -1.14430912e-01 -1.87459365e-02 -7.33041316e-02
  2.34772619e-02  5.64340595e-03 -2.82225944e-02 -2.54443102e-02
 -5.43400198e-02 -2.21841596e-02 -1.47840362e-02  5.06204590e-02
  1.30032673e-02 -1.66742802e-02 -2.16963943e-02 -2.72201058e-02
 -5.91400079e-02 -5.96627221e-02 -9.23289210e-02  1.57540217e-02
  1.20753713e-01 -2.63463650e-02  5.76015785e-02 -1.54343816e-02
 -7.90790096e-02  6.41082153e-02 -2.05663610e-02  1.12407438e-01
 -4.25513200e-02 -4.00939323e-02 -3.46580073e-02 -9.55094844e-02
 -2.43511815e-02 -5.65786175e-02 -3.34916003e-02 -7.31495908e-03
 -2.19995268e-02 -3.52465548e-02 -3.84244360e-02  1.06042452e-01
  7.28194863e-02 -4.93507758e-02 -3.58016938e-02 -2.61346288e-02
 -8.32115393e-03 -6.86474591e-02  2.19027605e-02 -3.81615236e-02
 -1.48752490e-02 -3.74385826e-02 -2.61862669e-02 -1.50522441e-02
 -4.22009092e-04 -2.93237660e-02 -2.98468154e-02 -2.36910116e-02
 -4.68872339e-02 -2.12792791e-02  5.69749698e-02  7.46628717e-02
 -3.19307037e-02 -2.93749068e-02 -2.63890903e-02  4.16252464e-02
 -1.63949486e-02 -2.65695993e-02 -5.16606793e-02 -1.50940055e-02
 -3.93387899e-02 -2.90773734e-02 -1.54367434e-02 -1.12526044e-02
  9.65551659e-03  5.49222603e-02 -6.02251478e-02 -2.59242617e-02
 -3.55084129e-02 -5.27292229e-02 -8.70284997e-03 -2.10161377e-02
  2.90725147e-05 -8.89446586e-03 -4.83948328e-02  2.73809712e-02
  2.28837226e-02 -1.24204084e-02 -3.42428051e-02 -1.53276652e-01
 -5.25011718e-02 -6.04990572e-02 -9.23584867e-03 -6.07800260e-02
 -5.77846020e-02 -6.73489198e-02 -3.27705592e-02 -4.27275524e-02
  4.77754772e-02 -2.70683579e-02 -3.57794426e-02 -3.73006426e-02
 -2.17754357e-02 -1.10455118e-02  3.93868517e-03  1.33027090e-03
 -4.09916975e-02 -1.62953120e-02 -5.67970099e-03 -1.88553706e-02
 -2.69747805e-02 -2.84905620e-02 -6.46110773e-02  1.18560158e-01
  2.37132870e-02 -9.77437347e-02  3.03141084e-02 -1.86966117e-02
 -3.43602858e-02 -4.86416332e-02 -6.01044856e-02 -5.92033155e-02
 -7.98770040e-03 -2.50188783e-02 -1.94232576e-02 -3.43831219e-02
 -1.23533923e-02 -5.59039116e-02  6.28091842e-02 -9.71064270e-02
  2.28903033e-02 -2.59279218e-02  5.78667559e-02 -8.22080672e-03
 -2.54345629e-02 -5.70662878e-02 -6.26029400e-03 -1.32808750e-02
 -1.64545048e-02 -1.57400426e-02 -4.22159806e-02 -1.10259112e-02
 -2.96619367e-02 -5.55484667e-02 -3.26327607e-02 -2.79423967e-03
  1.58506539e-03 -6.74461499e-02  8.94856602e-02 -4.46933210e-02
  2.62322351e-02  3.97964939e-02 -3.26033905e-02 -2.57302057e-02
 -1.16267996e-02 -2.97671091e-02 -1.62481777e-02 -2.52304990e-02
 -6.39414042e-02 -3.40065882e-02 -2.07587481e-02 -3.67002152e-02
  1.17929734e-01 -1.62525743e-01 -1.77507041e-04 -4.70096990e-02
 -9.48606175e-04 -1.91986915e-02 -4.81290631e-02  1.23102203e-01
 -3.85795385e-02 -1.62691064e-02 -2.58330293e-02 -8.30179006e-02
  3.65098156e-02 -1.05558410e-02 -1.02539910e-02 -2.28309315e-02
 -1.83111839e-02 -2.86013242e-02 -1.03554711e-01  1.43225774e-01
 -2.62533557e-02 -3.48498896e-02 -1.28330281e-02 -1.53492671e-02
  5.06506190e-02 -5.72787074e-04 -2.90762298e-02  6.20628223e-02
 -3.21786478e-02  1.87277272e-01 -6.36871532e-02 -7.47911353e-03
 -1.31774200e-02 -3.50870825e-02  2.58029103e-01 -1.07229063e-02
 -2.24476289e-02  3.15068784e-04  1.47235794e-02 -3.07801310e-02
 -2.72453930e-02  8.12315494e-02 -1.15221038e-01 -4.08383347e-02
  5.76993451e-02 -4.60509174e-02 -8.72530341e-02 -5.35725206e-02
 -7.34930765e-03 -1.07521176e-01 -3.05374283e-02 -3.74322757e-02
  3.99352424e-02  2.79993620e-02 -2.94919126e-02 -4.25013155e-02
 -2.34025121e-02 -1.72176510e-02 -9.91977472e-03  1.74542181e-02
 -1.58070475e-02 -1.11658461e-02 -1.65155604e-02 -5.36232851e-02
 -2.41301637e-02 -1.04460642e-02 -2.96828467e-02 -2.22847108e-02
 -9.60906669e-02 -5.47215976e-02 -3.73337008e-02 -4.42828126e-02
 -1.98877919e-02  5.33329695e-02 -3.95239517e-02 -3.65887396e-02
 -3.78587395e-02 -3.86096979e-03 -3.53771411e-02 -3.88135985e-02
 -1.13692336e-01 -1.97930820e-02  2.94103590e-03  6.05648011e-02
 -9.41184256e-03 -6.60372302e-02 -1.70579273e-02  3.49097438e-02
 -9.77656990e-02 -1.83121543e-02 -3.53380442e-02 -1.55597758e-02
  6.99819475e-02  8.29137713e-02 -3.55669037e-02  1.45161301e-02
 -5.52051924e-02 -3.88674177e-02  7.86557421e-02  6.59971237e-02
 -1.30409990e-02 -6.98364014e-03 -1.74282361e-02  6.53848499e-02
 -7.13491738e-02 -6.67952327e-03  8.27305764e-02 -9.89939086e-03
 -3.89109142e-02 -1.50380395e-02 -3.57615724e-02 -1.25454534e-02
 -3.93371508e-02 -1.46117900e-02 -5.50374240e-02 -1.38668984e-01
 -3.82619202e-02 -3.53774726e-02 -4.16350272e-03  4.10882272e-02
  3.08152307e-02  6.78436980e-02  7.09813787e-03  4.69644070e-02
 -4.81476076e-02 -1.75237935e-02 -1.49741871e-02 -2.98954211e-02
 -3.81354466e-02 -4.68428060e-02 -9.44608264e-03 -3.90519276e-02
 -6.71938946e-03 -4.50839549e-02 -3.53436023e-02 -6.35185046e-03
  6.33459538e-02 -1.16669023e-02  1.28417946e-02 -3.44722830e-02
 -1.02294594e-01 -1.75492335e-02 -1.76984090e-02 -1.45010566e-02
 -3.10277455e-02 -3.59989852e-02 -1.70241352e-02 -1.74334589e-02
  2.60912534e-02 -1.62883978e-02  1.73707768e-01 -2.00351346e-02
  2.69814637e-02 -2.07510591e-02 -2.87232138e-02 -1.28992647e-02
  9.57567766e-02 -1.32788373e-02 -2.10706908e-02 -1.08152311e-02
 -1.09350905e-02 -4.77907136e-02 -1.20511921e-02 -6.59243017e-02
 -1.16040800e-02 -1.88294817e-02  6.53425157e-02  8.88533741e-02
 -3.52780297e-02 -3.46435346e-02 -8.99106078e-03  1.00413457e-01
 -2.33338699e-02 -6.51852265e-02  2.77101189e-01 -3.79429832e-02
 -2.14315467e-02 -1.88156813e-02 -1.13918647e-01 -3.13300379e-02
  1.52488640e-02 -1.10403365e-02 -5.22718914e-02 -2.24648062e-02
 -3.70459519e-02 -1.96018834e-02 -1.19649217e-01 -4.75856103e-02]
icon_model/dense_1/kernel:0
(512, 236)
[[ 0.04266114  0.01475721 -0.05330792 ... -0.02227385  0.0138545
  -0.09645573]
 [-0.05846747  0.0746178   0.02723932 ...  0.03542991 -0.01749928
   0.00109036]
 [-0.01935988 -0.0433941  -0.01710543 ...  0.14433712 -0.14369303
   0.03878869]
 ...
 [ 0.19310975  0.13204059  0.03904079 ...  0.06775704 -0.07395057
  -0.0804915 ]
 [-0.07949996  0.03093952  0.00489774 ...  0.08766776 -0.1710662
  -0.20294671]
 [-0.09493168 -0.09614131 -0.01749589 ...  0.01275572 -0.10818082
   0.02671802]]
icon_model/dense_1/bias:0
(236,)
[-0.05146187 -0.06075259 -0.04968673 -0.03906714 -0.05745921 -0.048836
  0.00635564  0.02233813  0.07203978  0.040863    0.01250864  0.14963906
 -0.02024128 -0.01859491 -0.05394978 -0.01587611 -0.03044895 -0.03985075
  0.02205217 -0.01756886  0.03708244 -0.00972651 -0.04039704 -0.01872396
 -0.01554953 -0.01470591  0.17737924 -0.00381007  0.00782068 -0.02765888
 -0.02654391 -0.0202668   0.02319331 -0.02105949 -0.02891007 -0.01311804
 -0.04039815 -0.02907366 -0.00833587 -0.01327074 -0.00179283 -0.06291439
 -0.00520133 -0.00999054  0.10234006  0.1338797  -0.02008458 -0.08459542
 -0.07716078 -0.02593364 -0.0240187  -0.04299451 -0.03216384  0.07952512
 -0.0375679  -0.00602124 -0.08674299 -0.03112648 -0.02238683 -0.01855288
  0.11905292 -0.01493349 -0.02958263  0.00265599 -0.03148699 -0.05349338
  0.02788144 -0.02390238 -0.03345659 -0.00668326 -0.02519318 -0.04673335
 -0.03352771  0.04513769 -0.04029826 -0.0262744  -0.02954317 -0.03972817
 -0.03764519 -0.01444735 -0.04621931 -0.04705435 -0.02308849 -0.00319532
 -0.01999366  0.04159603 -0.05058053  0.01036716 -0.04175915 -0.01728977
  0.0037837  -0.04989522  0.1179857   0.06853829 -0.07435165  0.01811505
 -0.00663742 -0.01372558  0.00713368 -0.0321948  -0.01597063 -0.04247348
 -0.00081981  0.03188088 -0.00185979 -0.02807673 -0.03610349 -0.04271771
 -0.03431552 -0.0620721  -0.03415471 -0.05232118 -0.00385447  0.21941504
 -0.06139473 -0.01847834 -0.03861847  0.0048412  -0.03137061 -0.00918762
 -0.13232952 -0.00938184 -0.02353053  0.00357143 -0.01704741 -0.00929057
 -0.04847191 -0.07175124  0.01397908 -0.01319255 -0.01260927 -0.03464805
  0.00694331 -0.08070862  0.03182849 -0.02345225 -0.04306312 -0.07000347
  0.02125555 -0.02580554 -0.05782428  0.01254425 -0.02817593 -0.02543955
 -0.03851681 -0.04061936  0.02905511  0.01874822 -0.06307913 -0.0382674
 -0.04325523 -0.04950453 -0.00668628 -0.0155274  -0.05144846 -0.046532
  0.03428963  0.02224647 -0.01543174 -0.03540053  0.06768586  0.01198995
 -0.05570763 -0.05047997  0.012581   -0.05691447 -0.01615777 -0.01768451
 -0.00654218 -0.03574042 -0.04283461 -0.0370387  -0.01230674  0.12256603
 -0.00691179 -0.02395814 -0.05566217 -0.03645779  0.05402711  0.07650016
  0.06394491  0.07981671  0.06179502 -0.0077666   0.00658305 -0.01895812
  0.02795722 -0.0490396  -0.07405221 -0.04222762  0.00625898  0.00212412
 -0.03959744 -0.031419   -0.0078718  -0.015657   -0.00817981 -0.04572299
 -0.04365161 -0.01425082 -0.09106798 -0.00699659  0.03901837 -0.03454805
 -0.05786141 -0.01512956 -0.04021955 -0.03037052 -0.03121974 -0.01262258
 -0.02008465  0.05639218 -0.04162984 -0.02879331 -0.03498559 -0.00487504
  0.0195739  -0.01515284 -0.07560538 -0.02411974 -0.00289492 -0.02313947
 -0.01616433 -0.03957782 -0.02343629  0.01826644 -0.03115937 -0.00358804
 -0.01996049  0.05002107  0.02224729  0.12831295  0.09827624 -0.15105547
  0.1691652  -0.08892758]
